{"hiddenLayersCount":1,"hiddenNeuronsCount":10,"weights":[[[0.682106733,0.337650746,0.8538239,0.9325881,-0.6679592,0.265169352,0.303035,-0.0560981035,-0.7579434,0.5197787],[-0.278419852,0.9799881,-0.814161062,0.3293378,0.344273537,-0.6110265,0.9361346,-0.6442592,0.5912676,-0.0619035959],[-0.08060539,0.7583976,-0.3592757,0.8414705,0.466855258,0.5774834,-0.753397465,-0.374791026,-0.553205,0.754785538]],[[-0.860141754,-0.136846185,-0.263398528,-0.252523065,0.245184064,-0.6471343,-0.5407636,-0.922297955,-0.237912059,-0.130366683],[0.6391752,-0.863197565,0.8514681,0.9877322,-0.2246288,0.9004922,-0.04210937,-0.7542641,-0.429457545,-0.06196034],[0.932677746,0.216241,-0.4711882,-0.413133264,-0.7396815,0.8866408,-0.0396124125,-0.5946686,0.398153752,-0.5296662],[0.320656985,0.357609481,0.339864224,0.8293178,0.652466536,0.2176727,0.6541164,-0.930310965,0.9118993,-0.855005],[-0.6513119,0.176706672,0.326859921,-0.1753124,-0.642938852,-0.8600397,0.353957385,0.423616618,-0.083144784,0.501531839],[0.363275737,0.396099538,-0.6526239,-0.838230848,0.867903948,0.8165374,0.232556939,-0.140043378,-0.892780066,0.777613163],[-0.5187521,-0.084616065,-0.6927254,-0.477179646,0.7722571,-0.198806167,-0.4116968,-0.8224261,-0.634167433,0.478965],[0.50821805,0.9259887,-0.23402369,0.0651119947,0.442868918,0.3327267,0.544129848,0.503664,-0.536762953,-0.299879432],[0.957442045,0.271378,-0.004250407,-0.764842033,-0.8380666,-0.371196866,0.704054832,0.0601295233,-0.9747913,0.6493254],[0.223922133,0.106490016,-0.507575035,0.01277864,0.563958168,-0.269284368,0.459853858,0.438131064,-0.4179176,0.3481681]],[[0.656208038,-0.181863427],[-0.304504752,0.6214082],[0.0674299,-0.561208963],[0.318016022,0.718323231],[0.8167589,0.347707242],[0.851308346,0.244391561],[-0.5144651,0.0333768129],[0.0118144751,0.3744981],[-0.3831898,0.5128844],[-0.9565213,-0.922055]]],"biases":[-0.9579694,-0.0182386637,0.658653259]}