{"hiddenLayersCount":1,"hiddenNeuronsCount":10,"weights":[[[0.103226542,-0.13348186,0.506489038,0.3819799,0.00655162334,-0.659716368,-0.694303036,0.701782,-0.878952,-0.0314298868],[-0.08339894,0.109535336,0.247699857,-0.3262657,0.109093308,-0.05113232,-0.07948172,0.7202525,-0.812984943,0.575097561],[-0.07115686,-0.7243407,-0.7902975,-0.14669764,0.594229,0.886057138,-0.145252347,-0.836423159,0.045956254,0.41807577]],[[0.642025,-0.750698566,-0.213086486,-0.6438575,-0.9614682,0.887558937,0.6266322,-0.144041419,0.7726095,-0.55886054],[-0.6180854,-0.2198981,0.227797866,-0.9455335,-0.8932884,0.420454,0.365408629,-0.150164962,-0.352630019,0.6271534],[0.8951316,-0.8270006,0.19001925,0.762425661,0.291014165,-0.672544,0.748134851,-0.637568235,0.653732061,0.685267448],[-0.6827507,-0.589810848,0.675531149,0.375752658,0.0976194143,0.0884591341,0.1648947,0.267041415,0.3860502,0.533061743],[-0.208009124,0.2640936,0.3035135,0.243632674,0.5497377,0.968277931,0.479563922,0.228909135,-0.0520771742,0.6640568],[0.3827326,-0.465883136,-0.0973345041,-0.967638731,0.817469835,-0.259703755,-0.562188864,0.4952514,-0.595168352,0.252273053],[-0.222491145,0.611955166,-0.319176316,0.525634766,-0.297435164,0.498002976,0.258589953,0.9400077,-0.134767175,-0.552907944],[0.716147661,-0.328498244,-0.575081348,0.109458804,0.6249032,-0.258557916,0.5099995,-0.00731432438,0.400872916,0.8006766],[-0.206808448,-0.609707355,0.6488447,-0.2359525,0.862229347,0.358489722,0.9359796,-0.615064859,-0.2956947,-0.384778142],[-0.339746118,-0.7066636,-0.831545353,0.8990357,0.2990391,-0.750753164,-0.325508475,-0.03239596,-0.793262959,0.9922397]],[[-0.328983426,0.7489743],[-0.105195642,-0.9892564],[0.20339,0.7568474],[0.9681711,0.8967738],[-0.630528,-0.377056956],[0.318546981,-0.7149472],[0.0591927767,-0.106342912],[0.9624131,-0.04484451],[0.7875209,0.9453356],[0.372611254,0.294926852]]],"biases":[-0.244139552,-0.221545815,-0.3020941]}