{"hiddenLayersCount":1,"hiddenNeuronsCount":10,"weights":[[[-0.08247936,-0.30722487,-0.573402166,0.7530477,-0.418375134,0.8282871,-0.5524421,0.454712361,-0.774205446,-0.559947968],[-0.9847655,-0.609604359,-0.0101064444,-0.0127402544,0.521415949,0.488131016,0.9270797,-0.380822778,0.156045079,-0.1541847],[0.009765506,-0.08185542,0.08882749,-0.5536115,0.254069775,-0.912083864,0.6622703,-0.9378395,-0.3196982,-0.6265409]],[[0.9530041,-0.8083749,0.8926418,-0.758030653,-0.6148641,-0.150474429,0.4415767,0.22985065,-0.0447200537,0.6907618],[0.991467237,-0.253229022,0.994852066,0.332224578,-0.40734446,0.149425864,-0.9355252,-0.540785551,-0.14314878,0.88472724],[0.9126563,0.5416231,0.394914836,-0.6294811,0.833974361,0.4197118,0.324103564,-0.3505262,-0.1813711,0.5456643],[-0.124938846,0.490668029,0.8802397,-0.6256187,0.5438752,-0.209175229,0.418690652,0.195102572,-0.570786,-0.09725535],[-0.140517831,-0.755074739,-0.0235644579,-0.06733215,0.8457024,-0.0300802,-0.314291835,0.816571,-0.896169662,-0.073263526],[0.8163111,0.923738956,0.357062548,0.6170523,-0.5338752,0.8829591,0.8786795,-0.7952602,0.5548065,-0.5576179],[-0.722862959,-0.783695459,-0.9508109,0.630983353,0.708096743,-0.776333332,0.602510452,-0.8718412,-0.473113418,-0.288631558],[-0.192394853,0.03169787,0.0510185957,0.330817431,0.729704857,-0.829639435,-0.42329824,0.297305554,0.227977872,-0.3163849],[-0.521450758,0.4487066,-0.8944168,0.9826257,0.1675328,-0.03643,0.459835261,0.00446927547,-0.09805739,-0.876175165],[-0.9973972,-0.301900268,0.0159312487,-0.680954,0.9630668,0.0248559713,-0.3781005,0.9218664,0.7677126,0.8230536]],[[0.9170933,0.07204902],[-0.471705079,0.597245],[0.832288742,0.967318058],[-0.495585561,0.6137152],[-0.375455022,0.507107258],[-0.721864462,-0.7722149],[-0.0581499338,0.6935141],[-0.631325,-0.765928745],[0.883627653,0.544348],[-0.8828974,-0.5326905]]],"biases":[-0.297052264,0.599113941,-0.188391566]}