{"hiddenLayersCount":1,"hiddenNeuronsCount":10,"weights":[[[-0.8955095,0.969139338,-0.6112907,0.6875844,-0.576651335,-0.43229115,0.410703272,-0.443121552,0.279183358,0.9872601],[0.4296181,-0.933033466,0.947459459,0.8553848,0.0641948,-0.8050432,0.8023391,-0.186808228,0.517828941,-0.157930732],[0.5037203,-0.5706639,-0.354591966,0.3537773,0.940712452,0.522182,-0.7576225,-0.759959,-0.808743,0.2673013]],[[-0.958315849,0.5493994,0.2314421,0.7195437,0.7713063,0.3595638,0.9371929,-0.203791976,0.32110092,0.3971357],[0.211830735,0.6404104,-0.374445081,0.917216539,-0.9515133,0.455257624,-0.5479598,-0.729305,-0.377123237,-0.26186192],[-0.250110269,0.190542579,-0.08575904,0.08997691,0.209634423,-0.291284442,-0.256174922,-0.695806,0.759987831,0.4023728],[0.0166805983,-0.951875448,0.5830858,-0.381749034,0.305800885,-0.203600526,-0.4076835,0.9866061,0.321503371,-0.9275794],[-0.8951459,-0.5209789,-0.4706236,0.57225585,0.686872244,-0.7136469,-0.7202461,0.457130879,-0.737564564,0.9686291],[-0.971706867,-0.17430079,0.924577236,0.984209061,-0.0597690344,-0.124138,-0.27189672,-0.6912122,0.169493079,0.272994727],[0.474740237,0.9894042,-0.7214842,0.6386585,0.412096947,0.6452048,-0.349035859,0.294458359,0.7952974,-0.9882097],[0.7221489,0.08220351,-0.09737456,0.459491938,-0.6173487,-0.0561884642,-0.7927797,0.8538151,0.474117249,0.319350451],[0.6557932,-0.325755477,0.06892407,0.0495880842,0.8825569,0.848183632,-0.5055001,-0.239768863,0.329413861,0.116818309],[0.984349,-0.7842033,0.5045614,0.16628325,-0.260131478,0.468981236,-0.629178047,0.873455048,0.152966857,0.0444511175]],[[0.80130434,0.009485602],[-0.6034658,0.179312825],[0.384587258,-0.863116],[0.2927234,0.252041548],[0.438616246,-0.172597289],[0.408060759,0.780519],[-0.7042544,-0.620841],[-0.4273702,0.276515454],[-0.105416656,0.430750579],[0.618171,-0.52967453]]],"biases":[0.0981212854,-0.101617217,-0.006707549]}