{"hiddenLayersCount":1,"hiddenNeuronsCount":10,"weights":[[0.9544578,-0.05618727,0.05893791,0.3061118,0.0299722,0.6314387,-0.9244478,-0.4992589,-0.3998765,0.8798418,0.1310424,0.8832269,0.01444376,-0.700829,-0.8999944,0.8277433,0.8047235,-0.477126,-0.5973742,-0.9157572,0.2289537,-0.5006406,-0.305674,0.09798348,-0.5401456,0.2298797,0.7295644,0.748836,-0.6096039,-0.9537995],[0.7697973,-0.8302624,-0.449165,0.5562587,0.442017,0.7911422,-0.8315959,-0.5686665,-0.0809747,0.01570117,0.8187652,-0.822041,-0.2510036,-0.1830419,-0.8234978,-0.3693515,0.9768584,-0.8522255,0.2811696,-0.04479301,0.846596,0.7715893,-0.06560171,-0.02773654,0.4781758,0.4490387,0.1776894,0.9297497,0.2966101,-0.2961568,-0.2824053,-0.3256022,-0.02215087,0.5521841,-0.02439511,-0.9366887,0.9790568,-0.899807,0.6134875,0.45297,-0.8733969,0.06610763,0.6566639,-0.8752258,0.1894428,-0.3914865,-0.2561015,-0.3295661,-0.1408247,-0.7475071,0.229895,0.9639065,-0.08814752,0.0217005,0.8108299,-0.98399,0.06946027,0.1876906,-0.700907,-0.1808311,0.9769177,-0.4580504,0.6732764,0.5492387,-0.2981647,-0.9546456,-0.545301,-0.5123651,0.2546258,0.4022383,-0.9104934,0.9294534,0.7719679,-0.4552838,0.5542724,0.2946942,0.5500255,-0.02825463,-0.6816158,-0.9659145,-0.3185834,-0.09965217,0.3847744,0.176833,0.9325557,0.8373926,-0.5272,-0.7029083,-0.2679015,0.6271937,-0.9120343,0.2322985,-0.2672907,0.8781254,0.3790013,0.1630262,0.6365325,-0.1357728,0.7917562,0.8104084],[0.7576213,0.7746689,-0.7230721,0.07412016,-0.8729467,0.008036256,0.7885392,0.1937355,0.9831054,0.1480759,-0.6294885,-0.9303236,0.7288196,0.6921086,-0.2032405,-0.7414563,0.1357156,0.5903084,-0.1682256,0.7693682]],"biases":[0.8063266,-0.9830353,-0.02365553]}