{"hiddenLayersCount":1,"hiddenNeuronsCount":10,"weights":[[-0.8587382,0.9135463,0.6054111,0.3137111,0.4959736,-0.8700967,-0.2575468,-0.3125104,0.09798992,-0.4889721,0.1012734,-0.657572,0.2715819,-0.4024278,-0.6668978,0.614341,-0.9581265,-0.4971846,0.954891,0.7697096,0.8350189,-0.1464907,-0.6956086,0.1417471,0.2579572,0.9982495,0.06064713,-0.9977696,0.9469454,-0.09293687],[0.02538478,0.3728294,-0.6737614,-0.0822252,-0.700542,-0.2465981,0.1722003,0.9515698,-0.7966795,-0.00384295,0.4859793,0.03195727,-0.05900609,0.1259686,-0.9799342,0.5999434,0.7703984,0.1189567,-0.7797525,-0.7894015,-0.6157613,-0.5725951,-0.236971,0.4126584,0.8546324,-0.8363605,-0.5142064,0.7116501,-0.7733748,-0.52844,0.2481326,0.7994649,0.5949731,0.1967636,-0.1708168,0.04637992,0.655993,0.6048248,0.3398397,0.1899451,-0.3336726,-0.2296108,0.3927457,-0.007862687,-0.2169887,0.8426845,-0.02359784,-0.3885981,0.1274132,0.172448,0.1060313,-0.4304112,0.4998097,0.1874579,0.6182461,-0.6198664,-0.8513534,-0.4182159,-0.664887,0.8198557,-0.6232615,0.5746825,-0.07317746,-0.9516191,0.7123709,0.01184809,-0.4474851,0.991997,0.2876503,0.6030612,-0.7703578,0.08380878,-0.730422,-0.2415017,0.1175314,-0.803118,-0.532809,0.9919794,0.1969246,0.6626019,-0.2730635,0.01185429,0.6954606,-0.4177839,-0.6749721,0.6960673,0.6810784,-0.9408762,-0.8363326,-0.6152363,-0.6091816,-0.6815529,-0.4377738,-0.02733052,-0.6870673,-0.9775078,-0.0944432,0.3547277,0.2848394,0.4809935],[0.126855,-0.4979185,-0.868695,0.2565679,-0.6576624,-0.08374369,0.8987169,-0.8955262,0.8270304,-0.656337,0.5738435,-0.1031479,-0.3654803,-0.7484629,0.0827986,0.9229884,-0.4740242,0.1340016,-0.7981808,0.1075655]],"biases":[-0.6226737,0.06462228,0.9651883]}