{"hiddenLayersCount":1,"hiddenNeuronsCount":10,"weights":[[0.3583018,0.390752,-0.3970259,0.09031475,-0.0500344,0.5730197,-0.09100187,-0.2708095,-0.8228579,-0.3877457,0.663461,0.1766385,0.7938499,0.5820365,-0.9631777,0.436033,0.8260355,0.1606501,0.2143666,0.3996091,0.575839,0.5958385,-0.95474,0.9326763,-0.01394117,-0.4461795,-0.3681394,-0.9602866,0.5990222,0.06680906],[-0.5439279,-0.1060416,-0.02829087,-0.9490976,0.6348217,0.03876197,-0.208809,0.328763,0.9070981,0.280555,-0.7638769,-0.4129859,-0.4274231,-0.3157724,-0.1554354,-0.7234414,-0.7599521,0.5763352,-0.2042421,-0.9569104,-0.1261553,0.3299174,-0.4493028,-0.02060735,-0.9124715,0.4185865,0.8406973,-0.03379762,0.2661366,0.8851531,0.01781046,-0.3532549,-0.9391618,-0.5109179,0.8954294,0.7198315,-0.06279385,-0.7541454,0.1447591,0.09552658,-0.6266117,-0.3436364,0.2702634,0.09575593,0.878521,0.5768993,-0.3770283,-0.3692011,-0.3869747,0.8865311,-0.6088719,0.1656817,0.7757294,-0.1726443,-0.8146243,0.7170072,0.3109328,0.7355886,-0.9882841,-0.2079979,-0.9259462,0.3636517,0.931776,0.2484967,0.02798879,0.9131474,0.8843319,0.006741881,-0.8571298,-0.3949376,-0.07499492,-0.486333,-0.2265402,0.03850424,-0.2160114,0.1859559,0.6588919,-0.7970128,-0.6033072,0.2254189,0.1756397,-0.07346261,0.08413184,-0.8103325,0.3792131,0.5123363,0.4248922,-0.9838691,0.656677,0.5798597,-0.1248742,0.703609,0.5879402,0.7727346,-0.2713109,-0.1637326,-0.7540624,-0.2453879,0.7019532,-0.9019709],[-0.5302203,-0.559597,0.9021046,-0.982142,0.6526659,-0.9059136,0.2987396,-0.2387687,-0.9598424,-0.3648051,0.6796629,-0.4343983,0.8542621,0.6295311,-0.8221357,-0.8688402,0.5795395,0.4845814,-0.3219856,0.05109322]],"biases":[0.4919605,-0.1066099,0.08802569]}