{"hiddenLayersCount":1,"hiddenNeuronsCount":10,"weights":[[[0.0369526148,0.2830505,-0.515560865,0.195121169,0.09267819,0.6748061,-0.573338747,-0.4142593,0.6744795,-0.5971155],[-0.8014591,0.37051627,0.9358325,-0.116218209,0.400858134,-0.246298909,-0.6800759,-0.278221,0.814769268,0.402630776],[-0.49295485,-0.798157,-0.243138909,-0.08164418,-0.5860517,-0.222860217,0.8692992,-0.345739245,-0.838669538,-0.118927121]],[[0.8890586,-0.302060485,0.7033689,0.6748736,-0.4494816,0.7691965,0.9082966,0.8432462,-0.427599549,-0.6224997],[0.349193066,-0.163095117,-0.769727945,-0.4620155,-0.9099252,0.06029141,0.767745256,0.729636669,-0.01333487,0.34264347],[-0.823513746,0.9762566,-0.45494163,0.8717835,-0.9806149,-0.358842254,-0.238283515,0.760383844,0.6052761,-0.225990653],[-0.455129981,-0.213272214,0.137103438,0.183594823,-0.2744323,0.409976929,-0.9069748,-0.8150208,-0.7742193,0.0566056967],[0.0514694452,0.7136128,-0.7301359,0.2894239,-0.703633547,-0.5026777,-0.640185356,-0.0440808535,-0.504035234,0.935457945],[0.927601337,-0.9987767,0.0290132761,-0.8941419,0.774613142,0.0296927691,0.8426101,-0.5151129,0.8118787,-0.671622753],[-0.720636368,0.4688191,0.7602277,-0.686535358,0.5267036,-0.149150491,0.937991858,0.5860958,-0.586186647,-0.9684863],[0.6136904,0.758832455,-0.5171499,0.419419974,-0.511526346,-0.420605063,-0.6724477,-0.453809142,0.212075591,-0.0789181],[0.8562646,0.9448545,-0.124101281,0.153324962,-0.8462713,-0.196799874,0.0699805,0.6705847,0.7357061,-0.8594451],[0.804420948,-0.125991464,-0.611390352,0.4769468,0.989553,0.58425045,0.227137923,0.690896749,0.907659054,0.7646816]],[[-0.44422543,0.9975848],[0.22140491,0.303687066],[0.409561366,-0.2868687],[-0.758461237,-0.679957151],[-0.396147132,-0.09915173],[-0.7411392,-0.1158756],[-0.529698133,0.583178043],[0.0114532709,0.239475846],[-0.5159836,0.164968371],[0.5557339,0.618057]]],"biases":[-0.120867372,0.495197028,-0.687135458]}