{"hiddenLayersCount":1,"hiddenNeuronsCount":10,"weights":[[[0.956027269,0.0641816854,-0.7897515,-0.749400854,0.949396133,0.345783681,-0.425583243,-0.663502455,-0.5937183,0.115312934],[-0.148724675,0.05243075,0.701478243,0.9160116,-0.855137348,-0.7859485,-0.5913615,-0.432455182,-0.0577927828,-0.322497964],[0.5834825,0.7743113,0.9214487,0.342468,0.8569305,-0.7770946,0.05603826,-0.445252776,0.649184465,0.9353523]],[[-0.4342059,0.2471546,0.4334068,0.821279764,-0.507943153,-0.314430118,0.375387639,0.348889083,-0.559628,0.4291713],[-0.7764356,-0.234923959,0.841763,0.603074551,0.95696497,-0.323433042,0.797606468,0.6728077,0.6074226,0.0162512064],[-0.688780546,-0.932815552,-0.799113035,-0.4239093,-0.0333446264,-0.141436934,-0.4485346,0.157767177,-0.109979987,-0.8574052],[-0.7541299,-0.782586336,-0.02735579,-0.716279268,-0.745043755,-0.028570056,-0.364753127,0.6342268,-0.554900169,-0.735789537],[-0.8703644,0.0990909338,0.677865744,0.528278351,-0.487597346,-0.437715173,-0.550186634,0.18556273,0.506749153,-0.7180164],[0.210210681,0.9978628,-0.5214448,-0.11877358,0.825063944,-0.4395107,-0.8552296,0.28445074,0.486826152,0.5755553],[0.872894049,-0.81949544,0.6239791,0.5275552,-0.282123923,0.7830684,0.02888143,0.6530485,-0.337200522,-0.6685002],[-0.7739339,-0.0814017057,-0.161459565,-0.04694736,0.551332951,0.00625431538,0.7343943,-0.8959303,-0.553067446,-0.8085363],[-0.144594312,0.0215367079,0.257117718,0.6114869,-0.5864403,0.6023915,0.881336,0.6231513,0.9018905,-0.6712105],[-0.369979978,-0.35304606,-0.126397729,0.339270085,0.455959767,-0.5883515,0.523525238,-0.146899343,0.4306998,-0.351552367]],[[-0.208996177,-0.203877091],[-0.108783364,0.975001335],[0.8251655,0.5220752],[-0.42811048,-0.797245],[0.7920828,-0.005993247],[-0.331843972,-0.235635161],[-0.673665762,-0.7374995],[-0.457187533,0.0139738321],[-0.182247519,0.0558596849],[-0.6191354,0.87345624]]],"biases":[-0.199002624,0.269984215,-0.9965589]}